<?xml version="1.0" encoding="UTF-8"?>
<PMML version="3.0"><Header copyright="Copyright (c) StatSoft, Inc. All Rights Reserved."><Application name="STATISTICA Automated Neural Networks (SANN)" version="2.0"/></Header><DataDictionary numberOfFields="8"><DataField name="q пр" optype="continuous"/><DataField name="h пр" optype="continuous"/><DataField name="q1" optype="continuous"/><DataField name="h1" optype="continuous"/><DataField name="q2" optype="continuous"/><DataField name="h2" optype="continuous"/><DataField name="q3" optype="continuous"/><DataField name="h3" optype="continuous"/></DataDictionary><NeuralNetwork modelName="??????? ???_MLP 6-10-2" functionName="regression"><MiningSchema><MiningField name="q пр" usageType="predicted"/><MiningField name="h пр" usageType="predicted"/><MiningField name="q1" lowValue="0.002000" highValue="0.100948"/><MiningField name="h1" lowValue="2.000000" highValue="101.316629"/><MiningField name="q2" lowValue="0.505000" highValue="0.734973"/><MiningField name="h2" lowValue="0.500500" highValue="0.525478"/><MiningField name="q3" lowValue="0.002000" highValue="0.101648"/><MiningField name="h3" lowValue="0.002000" highValue="0.101648"/></MiningSchema><NeuralInputs numberOfInputs="6"><NeuralInput id="0"><DerivedField><NormContinuous field="q1" shift="-1.99290874778224e-002" scale="9.96453045283869e+000"><LinearNorm orig="2.00000266667307e-003" norm="0.000000"/><LinearNorm orig="1.00948320659830e-001" norm="1.000000"/></NormContinuous></DerivedField></NeuralInput><NeuralInput id="1"><DerivedField><NormContinuous field="h1" shift="-2.00000000000000e-002" scale="1.00000000000000e-002"><LinearNorm orig="2.00000000000000e+000" norm="0.000000"/><LinearNorm orig="1.01316628701595e+002" norm="1.000000"/></NormContinuous></DerivedField></NeuralInput><NeuralInput id="2"><DerivedField><NormContinuous field="q2" shift="-2.19591146310853e+000" scale="4.34834096594660e+000"><LinearNorm orig="5.04999833340000e-001" norm="0.000000"/><LinearNorm orig="7.34972599466519e-001" norm="1.000000"/></NormContinuous></DerivedField></NeuralInput><NeuralInput id="3"><DerivedField><NormContinuous field="h2" shift="-2.00377015841216e+001" scale="4.00353678137746e+001"><LinearNorm orig="5.00499999833333e-001" norm="0.000000"/><LinearNorm orig="5.25477914477493e-001" norm="1.000000"/></NormContinuous></DerivedField></NeuralInput><NeuralInput id="4"><DerivedField><NormContinuous field="q3" shift="-2.00705295640215e-002" scale="1.00352781623495e+001"><LinearNorm orig="1.99999733333973e-003" norm="0.000000"/><LinearNorm orig="1.01648455883479e-001" norm="1.000000"/></NormContinuous></DerivedField></NeuralInput><NeuralInput id="5"><DerivedField><NormContinuous field="h3" shift="-2.00705295640215e-002" scale="1.00352781623495e+001"><LinearNorm orig="1.99999733333973e-003" norm="0.000000"/><LinearNorm orig="1.01648455883479e-001" norm="1.000000"/></NormContinuous></DerivedField></NeuralInput></NeuralInputs><NeuralLayer numberOfNeurons="10" activationFunction="logistic"><Neuron id="6" bias="-3.37526147379828e+000"><Con from="0" weight="-9.08293499364951e-002"/><Con from="1" weight="-3.73327836410199e+000"/><Con from="2" weight="1.68388827335432e+000"/><Con from="3" weight="7.12775506519195e+000"/><Con from="4" weight="-2.08219278086092e+000"/><Con from="5" weight="-1.60628265325593e+000"/></Neuron><Neuron id="7" bias="2.72517575955758e-001"><Con from="0" weight="1.11769777117072e+000"/><Con from="1" weight="1.25120865520445e-001"/><Con from="2" weight="-2.55776537802357e+000"/><Con from="3" weight="1.55084542492294e+000"/><Con from="4" weight="-1.25347292393795e-001"/><Con from="5" weight="-2.49250177985236e+000"/></Neuron><Neuron id="8" bias="-4.43360783946941e-001"><Con from="0" weight="-2.17813912031933e-001"/><Con from="1" weight="-3.24806178654447e+000"/><Con from="2" weight="1.95708607989162e+000"/><Con from="3" weight="7.19650819356630e+000"/><Con from="4" weight="9.65688951408961e-001"/><Con from="5" weight="-9.31031717456640e+000"/></Neuron><Neuron id="9" bias="-3.37508887916844e+000"><Con from="0" weight="-9.44241832630334e-001"/><Con from="1" weight="-2.86616584275921e+000"/><Con from="2" weight="-1.13638836641608e+000"/><Con from="3" weight="-2.45001776401996e+000"/><Con from="4" weight="-5.25078776671616e-001"/><Con from="5" weight="-2.96377760745020e-002"/></Neuron><Neuron id="10" bias="-1.17212991301677e+000"><Con from="0" weight="1.12156561072662e+000"/><Con from="1" weight="-9.71551851377259e-001"/><Con from="2" weight="-1.66298842445831e+000"/><Con from="3" weight="-6.76048705018367e+000"/><Con from="4" weight="-5.83189234518950e+000"/><Con from="5" weight="-1.61905715738967e+001"/></Neuron><Neuron id="11" bias="-8.34706912804206e+000"><Con from="0" weight="-1.27803596574188e+000"/><Con from="1" weight="-2.71976472467410e+000"/><Con from="2" weight="-1.15102501142746e+000"/><Con from="3" weight="-2.38380800655570e+000"/><Con from="4" weight="-7.32741949714328e-001"/><Con from="5" weight="-1.85160485024915e+000"/></Neuron><Neuron id="12" bias="-1.58791054443132e+000"><Con from="0" weight="-5.33111723622450e+000"/><Con from="1" weight="6.03047984748087e+000"/><Con from="2" weight="-8.00716347443962e+000"/><Con from="3" weight="1.97604415408874e+000"/><Con from="4" weight="-1.23512387118087e+001"/><Con from="5" weight="-4.75452952956090e+000"/></Neuron><Neuron id="13" bias="-1.54736005406296e+000"><Con from="0" weight="8.24514278492814e-001"/><Con from="1" weight="2.48904965268387e+000"/><Con from="2" weight="9.20428145794586e-002"/><Con from="3" weight="-7.58914905415605e-001"/><Con from="4" weight="-3.81212030206323e+000"/><Con from="5" weight="-1.00856081627929e+001"/></Neuron><Neuron id="14" bias="-3.37872126311308e+000"><Con from="0" weight="-3.56846314839315e+000"/><Con from="1" weight="-2.67872943605865e+000"/><Con from="2" weight="-5.50594490931792e+000"/><Con from="3" weight="-3.03176395037279e+000"/><Con from="4" weight="-5.32917178635482e+000"/><Con from="5" weight="1.42960778645759e+000"/></Neuron><Neuron id="15" bias="-1.74502182529106e+000"><Con from="0" weight="-1.86622058453781e+000"/><Con from="1" weight="-3.61598040709321e-001"/><Con from="2" weight="-5.12209278843316e-001"/><Con from="3" weight="8.93999878443435e-001"/><Con from="4" weight="-1.37829781838846e+000"/><Con from="5" weight="-2.62852925636853e+000"/></Neuron></NeuralLayer><NeuralLayer numberOfNeurons="2" activationFunction="exponential"><Neuron id="16" bias="1.27756117384392e+000"><Con from="6" weight="-5.54430837945701e+000"/><Con from="7" weight="-5.67137281420237e+000"/><Con from="8" weight="-1.61203753006321e+000"/><Con from="9" weight="4.61084582368954e+000"/><Con from="10" weight="-1.68760870429261e+000"/><Con from="11" weight="1.27941723925596e+001"/><Con from="12" weight="-9.26036053407772e+000"/><Con from="13" weight="3.74956610632364e-001"/><Con from="14" weight="-2.61178157552989e+000"/><Con from="15" weight="-8.78133283666575e-002"/></Neuron><Neuron id="17" bias="4.97774672644860e-001"><Con from="6" weight="-7.53792011330496e-001"/><Con from="7" weight="-2.15080207732342e+000"/><Con from="8" weight="-4.76164577954385e+000"/><Con from="9" weight="4.90004297789108e+000"/><Con from="10" weight="-7.01785488681695e+000"/><Con from="11" weight="1.12757036531219e+000"/><Con from="12" weight="-9.93498678631809e-001"/><Con from="13" weight="-4.71084723531257e+000"/><Con from="14" weight="7.94548554970959e+000"/><Con from="15" weight="1.60413510014822e+000"/></Neuron></NeuralLayer><NeuralOutputs numberOfOutputs="2"><NeuralOutput outputNeuron="16"><DerivedField optype="continuous"><NormContinuous field="q пр" shift="-1.07391029690461e-002" scale="1.57927984838913e-003"><LinearNorm orig="6.80000000000000e+000" norm="0.00000000000000e+000"/><LinearNorm orig="6.40000000000000e+002" norm="1.00000000000000e+000"/></NormContinuous></DerivedField></NeuralOutput><NeuralOutput outputNeuron="17"><DerivedField optype="continuous"><NormContinuous field="h пр" shift="-9.19540229885057e-003" scale="2.29885057471264e-003"><LinearNorm orig="4.00000000000000e+000" norm="0.00000000000000e+000"/><LinearNorm orig="4.39000000000000e+002" norm="1.00000000000000e+000"/></NormContinuous></DerivedField></NeuralOutput></NeuralOutputs></NeuralNetwork></PMML>
